-1.062164381146430969e-01 5.732669234275817871e-01 -7.279258966445922852e-01 8.903186917304992676e-01 -7.681661844253540039e-02 -2.970030009746551514e-01 2.741508483886718750e-01 1.964758187532424927e-01 -2.750858068466186523e-01 -6.629884839057922363e-01 4.166195690631866455e-01 -4.860290512442588806e-02 -3.749595955014228821e-02 6.133608818054199219e-01 4.187520444393157959e-01 -1.401032209396362305e-01 -2.761194109916687012e-01 -1.064324378967285156e-01 4.355499148368835449e-01 7.386747747659683228e-02 -8.415752649307250977e-01 3.665763139724731445e-01 5.882061719894409180e-01 -1.647626608610153198e-01 4.086738824844360352e-01 -9.296676516532897949e-02 -5.777859687805175781e-01 -2.344148606061935425e-01 -9.271574765443801880e-02 -1.478325426578521729e-01 -5.037482380867004395e-01 -3.310115262866020203e-02 -9.673570282757282257e-03 6.109184622764587402e-01 2.001608610153198242e-01 -7.166427373886108398e-01 1.893203258514404297e-01 -5.932960510253906250e-01 -7.916259169578552246e-01 -4.081878960132598877e-01 2.871192991733551025e-01 -4.266061186790466309e-01 1.198217943310737610e-01 -1.086046248674392700e-01 3.654693663120269775e-01 -7.726059108972549438e-02
-1.268343478441238403e-01 8.479024767875671387e-01 1.033268170431256294e-03 -2.457627207040786743e-01 3.652177453041076660e-01 3.332652151584625244e-01 2.540719211101531982e-01 -8.529056310653686523e-01 -3.308615386486053467e-01 1.012109965085983276e-01 1.203320771455764771e-01 2.732182145118713379e-01 2.222376465797424316e-01 -9.964710474014282227e-01 1.036113351583480835e-01 -1.273871660232543945e-01 -5.570400878787040710e-02 -4.471249878406524658e-01 2.279310971498489380e-01 1.228377968072891235e-01 -1.314746141433715820e-01 7.276138663291931152e-01 1.242041945457458496e+00 -1.040067449212074280e-01 2.692044675350189209e-01 -7.067401707172393799e-02 -6.147941946983337402e-01 -6.950739026069641113e-01 1.087135914713144302e-02 -5.322682857513427734e-01 -1.802452802658081055e+00 -2.656476795673370361e-01 -1.742682307958602905e-01 2.341760396957397461e-01 1.804199963808059692e-01 2.134912729263305664e+00 -4.286587536334991455e-01 -5.104264020919799805e-01 -4.389014244079589844e-01 1.180124729871749878e-01 2.831159830093383789e-01 -3.602536618709564209e-01 -7.898310571908950806e-02 5.249819904565811157e-02 -1.765267401933670044e-01 4.061058759689331055e-01
-1.152313053607940674e-01 2.420270442962646484e-01 6.627057194709777832e-01 -8.669326454401016235e-02 -1.111610904335975647e-01 3.654690086841583252e-01 -2.052557468414306641e-01 4.715653881430625916e-02 5.179748535156250000e-01 9.056850075721740723e-01 7.487845420837402344e-01 7.106696963310241699e-01 7.021153569221496582e-01 2.610144317150115967e-01 -2.422345578670501709e-01 2.926278412342071533e-01 -1.744251698255538940e-01 4.899340867996215820e-02 2.396674752235412598e-01 1.113598421216011047e-01 4.087088108062744141e-01 8.091157674789428711e-01 -8.574753254652023315e-02 3.435468971729278564e-01 -3.624108806252479553e-02 3.289355337619781494e-01 -4.052939713001251221e-01 -2.069078199565410614e-02 -1.974114328622817993e-01 -4.025449156761169434e-01 -6.172915101051330566e-01 -1.028952598571777344e-01 -4.227207005023956299e-01 5.718812942504882812e-01 -8.489816635847091675e-02 1.856987357139587402e+00 -8.150022029876708984e-01 1.145663708448410034e-01 4.479117393493652344e-01 5.379882454872131348e-01 1.805747114121913910e-02 -2.078363448381423950e-01 -2.691421508789062500e-01 5.827770382165908813e-02 3.141603246331214905e-02 6.047404929995536804e-02
7.036837935447692871e-02 -8.368347585201263428e-02 -1.870588511228561401e-01 2.076216489076614380e-01 -8.593437820672988892e-02 -2.861708402633666992e-01 4.047236144542694092e-01 -1.114260181784629822e-01 -8.303791880607604980e-01 -2.051220536231994629e-01 -3.280755579471588135e-01 2.945446670055389404e-01 -1.051811337471008301e+00 -2.471617907285690308e-01 4.822669923305511475e-01 -4.860611259937286377e-01 -6.682249903678894043e-02 -3.817980885505676270e-01 2.622798383235931396e-01 2.296481281518936157e-01 -3.497654497623443604e-01 2.373834699392318726e-01 7.990567684173583984e-01 3.464230298995971680e-01 8.066507577896118164e-01 -1.052150726318359375e+00 -1.407750695943832397e-01 -2.927779555320739746e-01 -2.197995036840438843e-01 2.014606595039367676e-01 -5.266092717647552490e-02 6.117325425148010254e-01 7.139533162117004395e-01 8.394537866115570068e-02 6.153399944305419922e-01 -1.103377580642700195e+00 6.055452227592468262e-01 6.606734544038772583e-02 -5.462435483932495117e-01 -3.594638705253601074e-01 1.247622668743133545e-01 4.816111922264099121e-02 2.092484533786773682e-01 -5.047484859824180603e-02 4.270570874214172363e-01 6.331248581409454346e-02
5.829596519470214844e-01 1.278254669159650803e-02 -3.572523891925811768e-01 -1.009739115834236145e-01 8.701149225234985352e-01 1.930705457925796509e-01 2.383295446634292603e-01 1.267051100730895996e-01 2.554707825183868408e-01 -3.845939636230468750e-01 -1.326375961303710938e+00 -4.083045125007629395e-01 -1.100722908973693848e+00 1.401328146457672119e-01 5.372509360313415527e-01 -2.248737812042236328e-01 5.063015222549438477e-01 3.356356620788574219e-01 1.446128822863101959e-02 2.058314979076385498e-01 2.692121639847755432e-02 -8.639632165431976318e-02 -1.784173585474491119e-02 -5.539146065711975098e-02 -1.202481463551521301e-01 -4.372570514678955078e-01 4.440014362335205078e-01 -7.496204972267150879e-02 -2.696157693862915039e-01 5.813656449317932129e-01 6.013829112052917480e-01 6.160601973533630371e-01 5.328880548477172852e-01 6.347446888685226440e-02 -1.262229532003402710e-01 -2.181385278701782227e+00 8.474574089050292969e-01 4.315007030963897705e-01 -1.413441598415374756e-01 -4.717940092086791992e-02 1.745048612356185913e-01 2.513909339904785156e-01 4.415567815303802490e-01 -2.775024808943271637e-02 3.847396373748779297e-01 -2.404396235942840576e-01
3.727885484695434570e-01 -8.416424989700317383e-01 7.084985971450805664e-01 4.160500690340995789e-02 -9.794599562883377075e-02 -3.681270033121109009e-02 -1.853943569585680962e-03 5.844498276710510254e-01 3.535650968551635742e-01 7.906147837638854980e-02 -2.791290581226348877e-01 2.209377437829971313e-01 4.977703094482421875e-03 3.330402076244354248e-01 -3.983485102653503418e-01 5.150968208909034729e-02 6.125978827476501465e-01 -1.211022306233644485e-02 -3.529480993747711182e-01 1.038778275251388550e-01 1.922693103551864624e-01 -4.596496522426605225e-01 -3.245864510536193848e-01 5.667929053306579590e-01 -2.192198038101196289e-01 1.661239713430404663e-01 3.270802199840545654e-01 1.364446282386779785e+00 6.079008579254150391e-01 7.760456204414367676e-01 1.814186096191406250e+00 2.839793860912322998e-01 4.299853444099426270e-01 -2.748799026012420654e-01 2.359353452920913696e-01 -5.912006497383117676e-01 -4.189180955290794373e-02 5.996650457382202148e-01 4.250833690166473389e-01 -1.112989783287048340e-01 -7.490093261003494263e-02 3.645230233669281006e-01 -3.389191115275025368e-03 1.820512861013412476e-01 -2.293526567518711090e-02 2.442003488540649414e-01
3.141504526138305664e-02 -5.120266079902648926e-01 6.564100980758666992e-01 2.394913733005523682e-01 -1.975693553686141968e-01 1.576952934265136719e-01 -2.102710306644439697e-01 6.923291683197021484e-01 -5.705265998840332031e-01 3.378176391124725342e-01 -4.233641922473907471e-02 -7.814957201480865479e-02 5.056298375129699707e-01 1.297337710857391357e-01 -5.044027045369148254e-02 5.105131864547729492e-01 -1.962849311530590057e-02 5.313766002655029297e-01 -1.127017363905906677e-01 -8.598842471837997437e-02 5.732610225677490234e-01 -2.670477032661437988e-01 -9.104931950569152832e-01 -5.606225132942199707e-01 -8.774540424346923828e-01 1.170713067054748535e+00 -6.832336187362670898e-01 4.546259343624114990e-02 2.766872346401214600e-01 4.976984560489654541e-01 4.231490790843963623e-01 -1.914012283086776733e-01 -3.337042629718780518e-01 -5.056609511375427246e-01 -7.191270589828491211e-01 8.644431829452514648e-01 -1.702584475278854370e-01 5.492537021636962891e-01 6.527606248855590820e-01 4.955888986587524414e-01 -2.010055482387542725e-01 8.793912082910537720e-02 -3.378793895244598389e-01 7.150267064571380615e-02 -1.012692928314208984e+00 8.258301019668579102e-02
3.502536118030548096e-01 -5.497925877571105957e-01 3.463878035545349121e-01 -2.105776369571685791e-01 3.343029022216796875e-01 -3.228909149765968323e-02 -1.976230740547180176e-01 6.091386675834655762e-01 2.690280079841613770e-01 -7.151934504508972168e-02 -3.559099733829498291e-01 -5.292854458093643188e-02 8.462619036436080933e-02 8.921924829483032227e-01 -2.034948468208312988e-01 9.915859252214431763e-02 3.757383823394775391e-01 5.124439001083374023e-01 -1.343667954206466675e-01 -9.174618870019912720e-02 2.192796468734741211e-01 -6.024230122566223145e-01 -4.801316261291503906e-01 4.094850420951843262e-01 -4.116657376289367676e-01 1.004829883575439453e+00 4.847424030303955078e-01 8.634548783302307129e-01 3.255663514137268066e-01 5.567656755447387695e-01 2.530889511108398438e+00 6.726122647523880005e-02 1.843875646591186523e-01 -3.356373310089111328e-01 -2.004891075193881989e-02 -9.142333269119262695e-01 4.313456416130065918e-01 5.982902646064758301e-01 3.871097266674041748e-01 1.499870568513870239e-01 -1.422993987798690796e-01 2.019741237163543701e-01 1.086027249693870544e-01 -1.717287749052047729e-01 -1.722684651613235474e-01 -4.398066177964210510e-02
2.359686642885208130e-01 4.975116252899169922e-01 -4.739499390125274658e-01 -6.713849306106567383e-01 8.379908800125122070e-01 1.476543098688125610e-01 6.363032460212707520e-01 1.310516893863677979e-01 -6.813658475875854492e-01 -2.832171320915222168e-01 -4.206286966800689697e-01 1.285580545663833618e-01 -1.107107877731323242e+00 5.721259117126464844e-02 6.585516929626464844e-01 -4.084200263023376465e-01 1.460979878902435303e-01 -1.000567078590393066e-01 4.837506115436553955e-01 3.393131196498870850e-01 1.570741832256317139e-02 5.374577641487121582e-01 5.024873018264770508e-01 4.706875234842300415e-02 4.532682895660400391e-01 -7.808023691177368164e-01 2.310143262147903442e-01 -4.443867802619934082e-01 -3.235344588756561279e-01 1.240941286087036133e-01 -2.305383533239364624e-01 7.151411175727844238e-01 5.327821150422096252e-02 3.255245983600616455e-01 -2.526639997959136963e-01 -1.189216494560241699e+00 7.970160841941833496e-01 3.933996260166168213e-01 -1.188016533851623535e-01 8.587394654750823975e-02 3.507102727890014648e-01 2.619290649890899658e-01 4.252952337265014648e-01 3.531179204583168030e-02 8.805601298809051514e-02 8.252802491188049316e-02
-1.478914767503738403e-01 -1.445709019899368286e-01 -1.486075967550277710e-01 4.752000048756599426e-02 1.079811081290245056e-01 -5.656396970152854919e-02 3.360014781355857849e-02 -4.285237193107604980e-02 -9.977889060974121094e-02 -1.442696005105972290e-01 -1.070244610309600830e-01 1.258935034275054932e-02 -2.935382910072803497e-02 2.066817879676818848e-02 4.583782702684402466e-02 1.086429432034492493e-01 -1.468891203403472900e-01 -1.449736207723617554e-01 -1.504334211349487305e-01 2.277568913996219635e-02 1.082131639122962952e-01 -7.167370617389678955e-02 7.936473935842514038e-02 1.308114733546972275e-02 -1.453237533569335938e-01 4.618505761027336121e-02 -1.453726887702941895e-01 -1.507262289524078369e-01 -1.165295466780662537e-01 4.607843980193138123e-02 5.435198545455932617e-03 -7.016344368457794189e-02 7.438750937581062317e-03 -1.457462906837463379e-01 1.832447201013565063e-02 1.291634142398834229e-02 1.626380108064040542e-04 -5.674421787261962891e-03 -1.047123745083808899e-01 7.062696665525436401e-02 1.225837133824825287e-02 -1.188157871365547180e-02 7.303085923194885254e-02 9.356928616762161255e-02 1.444754935801029205e-02 1.042853947728872299e-02
4.183665290474891663e-02 -2.342875748872756958e-01 4.317881762981414795e-01 3.602161407470703125e-01 -3.487595915794372559e-01 3.040837347507476807e-01 -6.518071889877319336e-01 4.030814170837402344e-01 1.154573917388916016e+00 2.720844149589538574e-01 2.877102792263031006e-01 -3.326777815818786621e-01 1.097741365432739258e+00 2.747274339199066162e-01 -1.702188253402709961e-01 5.435751080513000488e-01 -2.449801266193389893e-01 1.021085739135742188e+00 -3.830211609601974487e-02 8.250386267900466919e-02 4.601709842681884766e-01 -3.831042349338531494e-01 -8.857553005218505859e-01 -4.611274302005767822e-01 -5.853695273399353027e-01 1.314099431037902832e+00 1.735407710075378418e-01 -1.277635246515274048e-01 -5.387004464864730835e-02 -6.380968540906906128e-02 6.283593773841857910e-01 2.152018100023269653e-01 -4.237488210201263428e-01 -1.991717517375946045e-01 -1.491089344024658203e+00 4.541191160678863525e-01 -1.506134569644927979e-01 2.411457151174545288e-01 2.543218433856964111e-01 2.428459376096725464e-01 -2.957683801651000977e-01 3.336396217346191406e-01 -2.226902693510055542e-01 -2.323554307222366333e-01 6.699324119836091995e-03 -3.527411222457885742e-01
8.048754185438156128e-03 6.076001524925231934e-01 -1.325354725122451782e-01 3.887308239936828613e-01 -3.068589866161346436e-01 -1.667637750506401062e-02 3.786242306232452393e-01 -2.417672723531723022e-01 -3.843135833740234375e-01 -5.430648848414421082e-02 8.758165687322616577e-02 3.410694897174835205e-01 -3.238013088703155518e-01 -1.563087701797485352e-01 -5.046703387051820755e-03 -2.925147414207458496e-01 -1.039933711290359497e-01 -9.993703365325927734e-01 2.837293148040771484e-01 3.274387419223785400e-01 -4.859666824340820312e-01 4.511115252971649170e-01 1.165338158607482910e+00 1.337672472000122070e-01 4.478821456432342529e-01 -1.162964701652526855e+00 -2.263014316558837891e-01 1.468627601861953735e-01 1.873360574245452881e-01 -3.725265264511108398e-01 -1.104838490486145020e+00 -8.022589981555938721e-02 3.242266178131103516e-01 4.718868732452392578e-01 5.974885821342468262e-01 1.014382958412170410e+00 -7.264451682567596436e-02 -4.775558710098266602e-01 -4.346680045127868652e-01 -1.956652700901031494e-01 1.316329091787338257e-01 3.126172348856925964e-02 2.450188696384429932e-01 2.559059858322143555e-01 7.952097058296203613e-01 6.682344675064086914e-01
-4.142875075340270996e-01 4.754278361797332764e-01 3.711374700069427490e-01 4.954881370067596436e-01 -7.267304658889770508e-01 9.588512033224105835e-02 -6.247369199991226196e-02 1.084358319640159607e-01 1.248979210853576660e+00 9.690924882888793945e-01 6.673749685287475586e-01 2.022036164999008179e-02 6.838002204895019531e-01 1.098259091377258301e-01 2.370351552963256836e-01 6.259863078594207764e-02 -5.628426074981689453e-01 1.616608947515487671e-01 6.664811968803405762e-01 1.913244873285293579e-01 2.412929981946945190e-01 9.297545552253723145e-01 1.205398216843605042e-01 -1.633088439702987671e-01 3.152039945125579834e-01 1.066725701093673706e-01 -5.275350809097290039e-01 -1.383227705955505371e+00 -3.556719720363616943e-01 -5.686720609664916992e-01 -2.243381261825561523e+00 1.924923360347747803e-01 -1.556932181119918823e-01 5.355669260025024414e-01 -3.136990964412689209e-01 1.998573303222656250e+00 -5.943164825439453125e-01 -2.227712720632553101e-01 -7.291351258754730225e-02 2.487450689077377319e-01 1.078497171401977539e-01 -7.434017956256866455e-02 5.847706645727157593e-02 -1.067248135805130005e-01 6.405583620071411133e-01 -1.107891276478767395e-01
7.483964785933494568e-03 -6.996134519577026367e-01 7.874868512153625488e-01 7.508981507271528244e-03 2.250871434807777405e-02 2.199603766202926636e-01 -3.994492068886756897e-02 7.419567704200744629e-01 1.063513040542602539e+00 4.100051820278167725e-01 3.586281836032867432e-02 4.992602020502090454e-02 5.451017059385776520e-03 4.766414463520050049e-01 -2.693340480327606201e-01 3.199871182441711426e-01 8.386033773422241211e-02 3.909612596035003662e-01 1.336364895105361938e-01 2.114722132682800293e-01 5.416947007179260254e-01 -2.650142312049865723e-01 -2.807035446166992188e-01 3.646831512451171875e-01 -1.457535922527313232e-01 1.135298848152160645e+00 2.477753609418869019e-01 -2.320402711629867554e-01 -9.624179452657699585e-02 9.161282777786254883e-01 4.510734975337982178e-01 6.649714708328247070e-01 1.714259237051010132e-01 1.345543414354324341e-01 -3.197790980339050293e-01 3.178146183490753174e-01 -2.961596101522445679e-02 7.111569046974182129e-01 6.173612475395202637e-01 3.210769295692443848e-01 -2.203881889581680298e-01 1.981879174709320068e-01 -1.070905476808547974e-01 -1.515789330005645752e-01 -1.794800162315368652e-02 -1.427200436592102051e-01
-4.389396011829376221e-01 2.646783590316772461e-01 8.069418668746948242e-01 -1.466407537460327148e+00 2.766025066375732422e-01 6.046283841133117676e-01 1.777633879100903869e-04 4.362114369869232178e-01 1.979609131813049316e-01 1.074770212173461914e+00 1.671671986579895020e+00 1.082885742187500000e+00 1.139037370681762695e+00 2.532411217689514160e-01 -3.139452338218688965e-01 1.662280708551406860e-01 -3.513008058071136475e-01 4.175002872943878174e-02 2.573058605194091797e-01 1.638054847717285156e-01 6.977418810129165649e-02 1.139907598495483398e+00 4.298781752586364746e-01 1.035464033484458923e-01 2.248085737228393555e-01 1.846619695425033569e-02 -5.174721479415893555e-01 -2.149676904082298279e-02 2.123543322086334229e-01 -7.955532670021057129e-01 -8.993318080902099609e-01 -3.661177456378936768e-01 -6.684176325798034668e-01 2.504386194050312042e-02 -2.191068977117538452e-01 1.771656870841979980e+00 -9.233385324478149414e-01 -1.087682694196701050e-01 2.673929929733276367e-01 1.891906857490539551e-01 1.005800589919090271e-01 5.252985749393701553e-03 -1.782058328390121460e-01 1.297315210103988647e-01 6.662689149379730225e-02 2.810909152030944824e-01
-5.031470060348510742e-01 6.960578560829162598e-01 -1.766013056039810181e-01 -3.392818570137023926e-01 3.117888867855072021e-01 1.519772559404373169e-01 5.933136940002441406e-01 -7.289503812789916992e-01 -5.887693762779235840e-01 6.227123141288757324e-01 4.709361791610717773e-01 1.308051943778991699e-01 3.729487955570220947e-01 -4.526731967926025391e-01 3.497694134712219238e-01 -1.383004784584045410e-01 -1.075937151908874512e-01 6.107903271913528442e-02 3.179181218147277832e-01 2.819968163967132568e-01 -5.136610865592956543e-01 5.715346336364746094e-01 1.679504215717315674e-01 -1.658836156129837036e-01 -1.287985593080520630e-01 -8.738337755203247070e-01 -6.587895154953002930e-01 -1.981768727302551270e+00 1.777769327163696289e-01 -4.455455839633941650e-01 -2.429616451263427734e+00 -5.303665399551391602e-01 -5.913166999816894531e-01 -1.011468023061752319e-01 -5.629942193627357483e-02 -1.193641200661659241e-01 -6.186438202857971191e-01 -6.342672109603881836e-01 -7.173711061477661133e-01 -3.689972460269927979e-01 3.969486355781555176e-01 -1.562319546937942505e-01 -1.791945397853851318e-01 1.206800639629364014e-01 -1.507440060377120972e-01 -5.248311907052993774e-02
-9.169398248195648193e-02 1.482502371072769165e-01 7.243862152099609375e-01 2.623791396617889404e-01 -7.125689387321472168e-01 3.332185149192810059e-01 -4.916280210018157959e-01 4.018318951129913330e-01 1.076898932456970215e+00 5.453478693962097168e-01 6.781144738197326660e-01 3.844791948795318604e-01 1.259506344795227051e+00 3.508796095848083496e-01 -1.450006216764450073e-01 5.592623353004455566e-01 -1.427194178104400635e-01 3.734758794307708740e-01 5.510773882269859314e-02 7.277994602918624878e-02 2.387763708829879761e-01 4.351021647453308105e-01 -1.739736050367355347e-01 -2.095555663108825684e-01 -4.332595467567443848e-01 3.192518949508666992e-01 -1.338444203138351440e-01 7.372960448265075684e-02 3.502106368541717529e-01 -7.596349716186523438e-02 -1.968454420566558838e-01 -4.120411872863769531e-01 -1.790148466825485229e-01 2.046885192394256592e-01 -3.037589490413665771e-01 1.226785182952880859e+00 -6.898977756500244141e-01 1.070726588368415833e-01 4.007847309112548828e-01 3.112536966800689697e-01 -1.107507757842540741e-02 1.639258116483688354e-01 -2.681186795234680176e-01 1.637565642595291138e-01 -6.337751448154449463e-02 -3.203351050615310669e-02
2.040688991546630859e-01 3.701432049274444580e-01 2.216552644968032837e-01 5.499753952026367188e-01 -1.263647198677062988e+00 4.180737733840942383e-01 -4.474444091320037842e-01 -2.035763710737228394e-01 3.066679537296295166e-01 7.950832247734069824e-01 1.770877242088317871e+00 4.157263636589050293e-01 1.799153089523315430e+00 4.701935127377510071e-02 -1.568462103605270386e-01 4.631816446781158447e-01 -5.325357615947723389e-02 2.753743715584278107e-02 2.122769206762313843e-01 -8.371467143297195435e-02 -2.849784493446350098e-01 8.139045238494873047e-01 7.445613741874694824e-01 -6.209265589714050293e-01 -1.419195085763931274e-01 -1.423314213752746582e-01 -3.655690848827362061e-01 2.924110889434814453e-01 6.496390700340270996e-01 -8.568782210350036621e-01 -4.671289622783660889e-01 -8.664431571960449219e-01 -2.514947354793548584e-01 1.153657585382461548e-01 -1.191411986947059631e-01 1.634971022605895996e+00 -4.726084172725677490e-01 -5.430924296379089355e-01 7.225918769836425781e-02 -2.019216716289520264e-01 7.903614640235900879e-02 -4.431680962443351746e-02 -2.195955216884613037e-01 2.017413526773452759e-01 1.142827719449996948e-01 1.866811066865921021e-01
-6.241695582866668701e-02 5.723431706428527832e-01 -1.191236227750778198e-01 5.495730042457580566e-01 3.052082955837249756e-01 1.119513884186744690e-01 1.444000899791717529e-01 -8.431122303009033203e-01 -5.844637155532836914e-01 8.847406506538391113e-02 5.549677014350891113e-01 -1.917248032987117767e-02 5.484593510627746582e-01 -9.410638213157653809e-01 -3.644747659564018250e-02 -2.318658232688903809e-01 -4.160498380661010742e-01 -3.316029608249664307e-01 2.622817754745483398e-01 4.938989505171775818e-02 -5.202482938766479492e-01 6.440920829772949219e-01 9.627195000648498535e-01 -1.898514181375503540e-01 2.900518178939819336e-01 4.292211532592773438e-01 -5.906614065170288086e-01 -1.024143576622009277e+00 -6.531907618045806885e-02 -8.463309407234191895e-01 -1.575660824775695801e+00 -6.945680975914001465e-01 5.547142028808593750e-02 2.322866395115852356e-02 -2.340753227472305298e-01 2.376420021057128906e+00 -2.068206816911697388e-01 -6.084253787994384766e-01 -6.122066378593444824e-01 -7.333315163850784302e-02 3.518637418746948242e-01 -1.974513530731201172e-01 1.571912467479705811e-01 3.465767800807952881e-01 2.224069982767105103e-01 4.775919616222381592e-01
1.164271309971809387e-02 -3.153759837150573730e-01 9.422432780265808105e-01 1.751964390277862549e-01 -1.551759839057922363e-01 3.157414197921752930e-01 -4.273455739021301270e-01 1.240098923444747925e-01 -9.735485166311264038e-02 2.353098541498184204e-01 5.408931970596313477e-01 4.041592478752136230e-01 5.941587090492248535e-01 1.489175558090209961e-01 -5.630940794944763184e-01 4.982374012470245361e-01 1.691216528415679932e-01 -2.619171142578125000e-01 3.375365864485502243e-03 6.593214720487594604e-02 3.223991021513938904e-02 -2.406268566846847534e-01 8.383345603942871094e-02 4.896223247051239014e-01 1.553909294307231903e-02 1.122789159417152405e-01 4.783560335636138916e-02 6.519812345504760742e-01 3.382578492164611816e-01 -2.379754185676574707e-01 -3.818581402301788330e-01 -8.486788868904113770e-01 2.296150922775268555e-01 2.339013814926147461e-01 2.645091712474822998e-01 1.649217367172241211e+00 -7.911928296089172363e-01 1.387199312448501587e-01 3.829489946365356445e-01 1.179339587688446045e-01 -4.413560032844543457e-02 -9.329470247030258179e-02 -2.069123834371566772e-01 1.715350747108459473e-01 -3.979498744010925293e-01 4.173894822597503662e-01
5.570484995841979980e-01 -6.325131058692932129e-01 2.645101845264434814e-01 4.858342409133911133e-01 -2.099996954202651978e-01 -1.091701015830039978e-01 -2.194153517484664917e-01 2.721615135669708252e-01 -1.192547529935836792e-01 4.283155500888824463e-01 5.328497663140296936e-02 7.801091670989990234e-01 6.709111928939819336e-01 -7.576691359281539917e-02 -2.295338809490203857e-01 2.933299839496612549e-01 5.503870844841003418e-01 -1.058097835630178452e-02 -5.112331509590148926e-01 8.874946087598800659e-02 7.499387115240097046e-02 -3.776165544986724854e-01 -1.197101473808288574e+00 -6.298115849494934082e-02 -4.792384207248687744e-01 8.778714574873447418e-03 2.959627658128738403e-02 1.657383084297180176e+00 8.663614392280578613e-01 2.038045972585678101e-01 1.908999681472778320e+00 -8.476731181144714355e-01 1.609476655721664429e-01 -2.069568485021591187e-01 -9.968354552984237671e-02 -4.457705318927764893e-01 1.644183546304702759e-01 3.441896736621856689e-01 6.248365640640258789e-01 1.579280644655227661e-01 -2.656344473361968994e-01 1.725022047758102417e-01 -1.055652722716331482e-01 2.015074342489242554e-01 -3.913067281246185303e-01 1.582824736833572388e-01
2.796783447265625000e-01 -1.426363587379455566e-01 -2.543729543685913086e-01 -3.161174058914184570e-01 6.176756620407104492e-01 -9.567926079034805298e-02 5.230233669281005859e-01 1.165208294987678528e-01 -2.935311496257781982e-01 -2.530446350574493408e-01 -1.364163041114807129e+00 2.025524377822875977e-01 -1.338543534278869629e+00 -5.298470705747604370e-02 4.762019515037536621e-01 -1.882519721984863281e-01 2.181141078472137451e-01 5.797403678297996521e-02 2.175657302141189575e-01 1.164982765913009644e-01 2.097206860780715942e-01 -6.712319701910018921e-02 1.062477976083755493e-01 2.278051376342773438e-01 4.327118396759033203e-01 -1.994255632162094116e-01 4.437435269355773926e-01 -3.610280454158782959e-01 -3.263438344001770020e-01 6.574183106422424316e-01 2.885349094867706299e-01 6.758994460105895996e-01 6.312149167060852051e-01 2.563768811523914337e-02 7.256101816892623901e-02 -1.640526771545410156e+00 8.409184217453002930e-01 4.148848652839660645e-01 -5.834872275590896606e-02 2.523293346166610718e-02 1.761123090982437134e-01 2.972489595413208008e-01 2.890470623970031738e-01 6.467226147651672363e-02 1.419124454259872437e-01 7.125782221555709839e-02
5.264282822608947754e-01 4.135192036628723145e-01 -6.075602769851684570e-01 5.060201883316040039e-01 -3.524490892887115479e-01 -7.899492233991622925e-02 1.584518253803253174e-01 -6.561659574508666992e-01 -1.052599191665649414e+00 -4.703356921672821045e-01 2.741054296493530273e-01 1.265904307365417480e-02 -1.154303103685379028e-01 -4.729315042495727539e-01 2.292246669530868530e-01 -9.025041759014129639e-02 4.100818932056427002e-01 -5.828219056129455566e-01 -1.286643892526626587e-01 1.813788563013076782e-01 -9.156536459922790527e-01 2.147511243820190430e-01 1.228905439376831055e+00 1.016682535409927368e-01 2.028758078813552856e-01 -1.472899079322814941e+00 3.323762714862823486e-01 6.035557389259338379e-01 4.178577363491058350e-01 -8.834174871444702148e-01 -2.077536284923553467e-01 -4.990112185478210449e-01 5.181238651275634766e-01 -1.505693793296813965e-01 -1.622404344379901886e-02 -1.708184003829956055e+00 5.064973235130310059e-01 -5.909967422485351562e-01 -8.613826036453247070e-01 -8.312862515449523926e-01 3.501865863800048828e-01 3.614822924137115479e-01 6.337546706199645996e-01 4.030603170394897461e-01 9.212517738342285156e-01 2.333644181489944458e-01
-2.121056318283081055e-01 5.888413786888122559e-01 -7.200983166694641113e-01 2.131351679563522339e-01 -1.351511180400848389e-01 -8.305741101503372192e-02 4.091838300228118896e-01 -2.733836770057678223e-01 -3.899730443954467773e-01 -2.919335365295410156e-01 4.240672290325164795e-02 -3.928279280662536621e-01 -3.885630667209625244e-01 -3.835963904857635498e-01 4.406904578208923340e-01 -2.022224217653274536e-01 -2.446799129247665405e-01 1.748764663934707642e-01 4.430288374423980713e-01 1.771534830331802368e-01 -4.235264360904693604e-01 3.260858356952667236e-01 3.044225573539733887e-01 -2.096226811408996582e-01 2.963264286518096924e-01 -6.205082535743713379e-01 2.647910080850124359e-02 -7.231367230415344238e-01 -5.249536633491516113e-01 -4.246018528938293457e-01 -8.705547451972961426e-02 -1.165717020630836487e-01 5.776058137416839600e-02 1.852095574140548706e-01 -4.039131700992584229e-01 -1.097083210945129395e+00 5.030727982521057129e-01 -3.390684723854064941e-01 -4.803033471107482910e-01 -1.469948589801788330e-01 1.110996976494789124e-01 9.721170365810394287e-02 1.481691598892211914e-01 1.960643101483583450e-03 6.259192824363708496e-01 -1.733794212341308594e-01
5.175656080245971680e-01 -5.324608460068702698e-02 -1.843302696943283081e-01 -5.539397001266479492e-01 8.303808569908142090e-01 7.286904752254486084e-02 4.349310398101806641e-01 3.341335058212280273e-01 -2.143114656209945679e-01 -4.474404454231262207e-01 -1.196174383163452148e+00 5.168452262878417969e-01 -1.408475160598754883e+00 2.768241763114929199e-01 4.061454832553863525e-01 -2.158097922801971436e-01 6.486692428588867188e-01 3.409857153892517090e-01 1.103767901659011841e-01 3.794814646244049072e-01 4.196082949638366699e-01 -3.727590441703796387e-01 -5.663214251399040222e-03 3.789654672145843506e-01 -1.241903901100158691e-01 -3.380930125713348389e-01 5.850010514259338379e-01 -1.997032165527343750e-01 -2.782962322235107422e-01 8.667493462562561035e-01 4.094673395156860352e-01 7.018474936485290527e-01 6.095950007438659668e-01 2.834196202456951141e-02 -1.514469087123870850e-02 -2.098513364791870117e+00 9.769510030746459961e-01 4.921343624591827393e-01 2.862106859683990479e-01 8.575911633670330048e-03 1.257438361644744873e-01 4.562125205993652344e-01 3.032341301441192627e-01 2.035911381244659424e-01 3.463751822710037231e-02 -9.574382752180099487e-02
-1.538598537445068359e-01 6.532748937606811523e-01 4.741457402706146240e-01 7.975050806999206543e-02 3.919934481382369995e-02 1.514356732368469238e-01 1.888867020606994629e-01 -6.872724890708923340e-01 4.410392642021179199e-01 7.694095969200134277e-01 4.828925132751464844e-01 1.213169470429420471e-01 7.349490374326705933e-02 -4.030097723007202148e-01 3.749638497829437256e-01 -6.079626828432083130e-02 -4.408129453659057617e-01 -1.667163372039794922e-01 6.591520309448242188e-01 2.818790674209594727e-01 -1.599830985069274902e-01 5.280244946479797363e-01 4.647150635719299316e-01 -2.787639200687408447e-01 5.191367119550704956e-02 -1.149205446243286133e+00 -7.955833673477172852e-01 -1.652554392814636230e+00 -5.093674659729003906e-01 -3.330131769180297852e-01 -2.851549386978149414e+00 3.193264827132225037e-02 -3.544685244560241699e-01 5.525489449501037598e-01 -3.486500382423400879e-01 1.539079189300537109e+00 -6.446895599365234375e-01 -3.304477930068969727e-01 -3.434422016143798828e-01 -6.417230470106005669e-04 8.858059346675872803e-02 -1.492093801498413086e-01 -2.374686300754547119e-01 -1.537502259016036987e-01 4.609982371330261230e-01 1.791220903396606445e-01
2.187755703926086426e-02 4.820111691951751709e-01 -2.014266550540924072e-01 6.299402713775634766e-01 -3.779843449592590332e-01 1.415671259164810181e-01 4.033932685852050781e-01 -1.852745413780212402e-01 -4.438837468624114990e-01 -1.282142847776412964e-01 3.520884513854980469e-01 2.881978452205657959e-01 -4.417137801647186279e-01 1.656846851110458374e-01 -8.993813768029212952e-03 -5.925892591476440430e-01 -1.657250374555587769e-01 -1.113113164901733398e+00 7.520472258329391479e-02 2.352501899003982544e-01 -6.727370023727416992e-01 3.353872299194335938e-01 8.426976799964904785e-01 4.158926010131835938e-01 -4.248189032077789307e-01 -1.322793483734130859e+00 -1.176942959427833557e-01 6.162565946578979492e-01 4.590371251106262207e-01 4.212898313999176025e-01 -6.075443029403686523e-01 -3.524813652038574219e-01 2.825217843055725098e-01 -2.759891748428344727e-01 1.212106794118881226e-01 1.004292607307434082e+00 2.095881253480911255e-01 -2.559694945812225342e-01 -6.579275131225585938e-01 -3.087647259235382080e-01 3.624794185161590576e-01 -1.538932919502258301e-01 2.241140305995941162e-01 5.920726656913757324e-01 5.510643124580383301e-01 9.169703722000122070e-01
-1.129686981439590454e-01 -9.373977780342102051e-03 -1.177100688219070435e-01 1.134456098079681396e-01 2.631975710391998291e-02 -1.255392432212829590e-01 -5.705785006284713745e-02 -5.751369893550872803e-02 -3.723365068435668945e-02 1.059713065624237061e-01 -1.217813342809677124e-01 1.114837229251861572e-01 -7.906316220760345459e-02 1.343428492546081543e-01 -1.273736953735351562e-01 -1.176488548517227173e-01 -1.037261188030242920e-01 -1.309095472097396851e-01 5.892433226108551025e-02 -8.883762359619140625e-02 1.140820384025573730e-01 2.732843160629272461e-03 -1.220175623893737793e-01 -1.119035780429840088e-01 -1.215416640043258667e-01 -1.272408813238143921e-01 9.999017417430877686e-02 -1.107494533061981201e-02 -7.159487903118133545e-02 9.598599374294281006e-02 -3.979712724685668945e-02 4.962581396102905273e-02 -6.312599778175354004e-02 -6.419749557971954346e-02 -3.136347234249114990e-02 1.414126455783843994e-01 4.802197217941284180e-03 5.071118474006652832e-03 -4.824119061231613159e-02 -5.210108309984207153e-02 -4.027082771062850952e-02 -1.394274085760116577e-01 -4.613821953535079956e-02 -1.307225823402404785e-01 -1.087524443864822388e-01 -6.750021129846572876e-02
-2.911363244056701660e-01 5.807273983955383301e-01 2.323286384344100952e-01 -5.782054066658020020e-01 1.623332649469375610e-01 3.675850927829742432e-01 1.194241121411323547e-01 -3.315278887748718262e-01 1.337354630231857300e-01 9.540778994560241699e-01 4.741929769515991211e-01 8.194722980260848999e-02 3.889396190643310547e-01 3.998585641384124756e-01 2.402264028787612915e-01 1.148258447647094727e-01 -3.446586132049560547e-01 1.038081571459770203e-01 5.548097491264343262e-01 2.931081950664520264e-01 4.144608378410339355e-01 8.801600933074951172e-01 3.078995086252689362e-02 -2.473728805780410767e-01 -1.033453047275543213e-01 4.949556887149810791e-01 -7.017772793769836426e-01 -1.092915773391723633e+00 -3.014488518238067627e-01 -3.878698348999023438e-01 -1.486766219139099121e+00 -3.220101594924926758e-01 -5.883557200431823730e-01 6.204878091812133789e-01 -2.389465719461441040e-01 2.500058889389038086e+00 -7.553668618202209473e-01 -2.516543865203857422e-01 1.614725217223167419e-02 5.005564093589782715e-01 2.675161957740783691e-01 -2.234572917222976685e-01 -8.812325075268745422e-03 1.452100872993469238e-01 8.201907575130462646e-02 1.943308115005493164e-02
2.845965325832366943e-02 -4.925552755594253540e-02 7.272171974182128906e-02 -6.305490434169769287e-02 1.472176909446716309e-01 -8.878139406442642212e-02 6.717367470264434814e-02 1.395736634731292725e-01 -3.997123986482620239e-02 1.419855654239654541e-02 -1.190464794635772705e-01 -1.217799484729766846e-01 -9.607508778572082520e-02 -1.319883018732070923e-01 -6.707829236984252930e-02 1.376898586750030518e-02 -9.533922374248504639e-02 -3.158259391784667969e-02 -8.507010340690612793e-02 -1.423273533582687378e-01 -9.969151765108108521e-02 4.047067463397979736e-02 -1.435561329126358032e-01 -1.032380759716033936e-01 1.201466321945190430e-01 -8.441837131977081299e-02 3.198064863681793213e-02 -8.919842541217803955e-02 4.347670078277587891e-02 -4.979958385229110718e-02 1.467117667198181152e-01 -4.546023905277252197e-02 3.347103297710418701e-02 -7.025368511676788330e-02 8.805805444717407227e-02 5.875357985496520996e-02 1.316748857498168945e-01 -1.222939565777778625e-01 8.786422014236450195e-02 4.425168037414550781e-03 -1.045122146606445312e-01 -2.355539798736572266e-02 -1.397584378719329834e-02 -1.198377311229705811e-01 7.705944776535034180e-02 -4.319071769714355469e-02
4.727981090545654297e-01 -3.483291268348693848e-01 -2.464853972196578979e-01 4.480853974819183350e-01 9.213457256555557251e-02 -2.460812963545322418e-02 4.598851203918457031e-01 -1.694076806306838989e-01 -1.271240860223770142e-01 -1.144093990325927734e+00 -9.913275241851806641e-01 -2.892684638500213623e-01 -1.090780615806579590e+00 -2.909340560436248779e-01 1.953620314598083496e-01 -3.203163743019104004e-01 3.519362211227416992e-01 7.496491819620132446e-02 -1.468405425548553467e-01 -4.009202122688293457e-02 -4.284210503101348877e-01 -4.199338853359222412e-01 5.463576689362525940e-02 4.827590286731719971e-02 3.908752799034118652e-01 -5.954025983810424805e-01 7.118695378303527832e-01 2.538753449916839600e-01 -1.599482446908950806e-01 5.102780461311340332e-01 4.793593883514404297e-01 5.234640836715698242e-01 8.413660526275634766e-01 -1.054713055491447449e-01 1.147886067628860474e-01 -2.031231164932250977e+00 1.027977585792541504e+00 3.369780182838439941e-01 -1.862099468708038330e-01 -3.838318884372711182e-01 -4.659597948193550110e-02 2.160515934228897095e-01 3.239795267581939697e-01 -3.293579444289207458e-02 5.435016155242919922e-01 1.391815766692161560e-02
2.710936963558197021e-01 -2.711672484874725342e-01 8.444069027900695801e-01 2.556227147579193115e-01 -3.106716573238372803e-01 3.525474369525909424e-01 -3.541127443313598633e-01 3.389341533184051514e-01 7.309110164642333984e-01 2.268708050251007080e-01 4.462495446205139160e-01 4.457546174526214600e-01 8.572112321853637695e-01 2.958064079284667969e-01 -3.132440149784088135e-01 3.942030668258666992e-01 3.304813206195831299e-01 -1.184765249490737915e-03 2.909639151766896248e-03 1.470043230801820755e-02 1.372183710336685181e-01 -2.692592740058898926e-01 2.963746786117553711e-01 2.805294990539550781e-01 -2.049925625324249268e-01 2.218796610832214355e-01 1.180742755532264709e-01 7.650269269943237305e-01 6.142200827598571777e-01 -1.126941591501235962e-01 -9.373775869607925415e-02 -2.065356522798538208e-01 7.739791274070739746e-02 -1.009695157408714294e-01 1.921484470367431641e-01 1.140838861465454102e+00 -6.608768701553344727e-01 3.815158084034919739e-02 5.957344770431518555e-01 3.072103559970855713e-01 -1.037685871124267578e-01 2.302873730659484863e-01 -2.052282989025115967e-01 -1.545633468776941299e-02 4.457668215036392212e-02 2.167819589376449585e-01
